{
    "levels":[
       {
          "inputs":[
             0,
             0,
             0,
             0,
             0.4511229006909394
          ],
          "outputs":[
             1,
             0,
             1,
             1,
             0,
             0
          ],
          "biases":[
             -0.05356772887392087,
             0.048561915766566544,
             -0.09670085234450303,
             0.05339093304880999,
             0.13099530988569286,
             0.19675510082648023
          ],
          "weights":[
             [
                -0.16012451441947234,
                -0.16326015418946116,
                -0.36327768259213244,
                -0.15349306950080277,
                0.36319635684388196,
                0.2962399666337437
             ],
             [
                -0.5039993591003934,
                -0.2296576390346327,
                -0.33793503787131585,
                0.2953576142179015,
                -0.6067777016752871,
                0.24527334305925624
             ],
             [
                0.24875270487102386,
                0.2281995484664585,
                -0.3997705192243035,
                -0.20801149211072628,
                0.4262935079997551,
                0.09778608916271204
             ],
             [
                -0.09455824955022915,
                0.019323560978640214,
                -0.28243731644011916,
                0.021838551970199016,
                -0.07869117329673017,
                -0.3429909896737755
             ],
             [
                0.6160268148462619,
                -0.09552151589672181,
                0.4827402979373895,
                0.24410359750245636,
                0.012685476708158457,
                0.03520313987240373
             ]
          ]
       },
       {
          "inputs":[
             1,
             0,
             1,
             1,
             0,
             0
          ],
          "outputs":[
             1,
             1,
             1,
             0
          ],
          "biases":[
             -0.3040828256277839,
             -0.23015549914974617,
             -0.21320481899502458,
             0.06570162441510419
          ],
          "weights":[
             [
                0.09213066960802127,
                -0.27567676805133623,
                -0.24717538619108687,
                -0.03590106709130328
             ],
             [
                0.5118865716209114,
                -0.1688870213795465,
                -0.45383789855904066,
                0.38543431148567764
             ],
             [
                0.012756011240538531,
                0.42660477118065065,
                -0.16244366773394997,
                -0.3565407679718342
             ],
             [
                0.10720070504537726,
                0.22306325497345958,
                0.5830769614994932,
                -0.5252688749071348
             ],
             [
                -0.027981586687907373,
                0.5184300560353144,
                0.017851717728909797,
                -0.03936362245908573
             ],
             [
                -0.26303899427512917,
                -0.5086009039128663,
                0.15285461914155668,
                -0.09044430568088549
             ]
          ]
       }
    ]
 }